<NeuralNetwork>
    <Inputs>
        <InputsNumber>20</InputsNumber>
        <Item Index="1">
            <Name>input_1</Name>
            <Units></Units>
            <Description></Description>
        </Item>
        <Item Index="2">
            <Name>input_2</Name>
            <Units></Units>
            <Description></Description>
        </Item>
        <Item Index="3">
            <Name>input_3</Name>
            <Units></Units>
            <Description></Description>
        </Item>
        <Item Index="4">
            <Name>input_4</Name>
            <Units></Units>
            <Description></Description>
        </Item>
        <Item Index="5">
            <Name>input_5</Name>
            <Units></Units>
            <Description></Description>
        </Item>
        <Item Index="6">
            <Name>input_6</Name>
            <Units></Units>
            <Description></Description>
        </Item>
        <Item Index="7">
            <Name>input_7</Name>
            <Units></Units>
            <Description></Description>
        </Item>
        <Item Index="8">
            <Name>input_8</Name>
            <Units></Units>
            <Description></Description>
        </Item>
        <Item Index="9">
            <Name>input_9</Name>
            <Units></Units>
            <Description></Description>
        </Item>
        <Item Index="10">
            <Name>input_10</Name>
            <Units></Units>
            <Description></Description>
        </Item>
        <Item Index="11">
            <Name>input_11</Name>
            <Units></Units>
            <Description></Description>
        </Item>
        <Item Index="12">
            <Name>input_12</Name>
            <Units></Units>
            <Description></Description>
        </Item>
        <Item Index="13">
            <Name>input_13</Name>
            <Units></Units>
            <Description></Description>
        </Item>
        <Item Index="14">
            <Name>input_14</Name>
            <Units></Units>
            <Description></Description>
        </Item>
        <Item Index="15">
            <Name>input_15</Name>
            <Units></Units>
            <Description></Description>
        </Item>
        <Item Index="16">
            <Name>input_16</Name>
            <Units></Units>
            <Description></Description>
        </Item>
        <Item Index="17">
            <Name>input_17</Name>
            <Units></Units>
            <Description></Description>
        </Item>
        <Item Index="18">
            <Name>input_18</Name>
            <Units></Units>
            <Description></Description>
        </Item>
        <Item Index="19">
            <Name>input_19</Name>
            <Units></Units>
            <Description></Description>
        </Item>
        <Item Index="20">
            <Name>input_20</Name>
            <Units></Units>
            <Description></Description>
        </Item>
    </Inputs>
    <ScalingLayer>
        <ScalingNeuronsNumber>20</ScalingNeuronsNumber>
        <Statistics Index="1">
            <Minimum>-77.573</Minimum>
            <Maximum>-67.9515</Maximum>
            <Mean>-72.6881</Mean>
            <StandardDeviation>2.2856</StandardDeviation>
        </Statistics>
        <Statistics Index="2">
            <Minimum>-1.47814</Minimum>
            <Maximum>1.31007</Maximum>
            <Mean>0.135666</Mean>
            <StandardDeviation>0.618362</StandardDeviation>
        </Statistics>
        <Statistics Index="3">
            <Minimum>-1.17057</Minimum>
            <Maximum>0.872728</Maximum>
            <Mean>-0.0035914</Mean>
            <StandardDeviation>0.410362</StandardDeviation>
        </Statistics>
        <Statistics Index="4">
            <Minimum>-1.30067</Minimum>
            <Maximum>1.146</Maximum>
            <Mean>0.0739594</Mean>
            <StandardDeviation>0.394063</StandardDeviation>
        </Statistics>
        <Statistics Index="5">
            <Minimum>-0.568993</Minimum>
            <Maximum>0.994483</Maximum>
            <Mean>0.192942</Mean>
            <StandardDeviation>0.299285</StandardDeviation>
        </Statistics>
        <Statistics Index="6">
            <Minimum>6e-06</Minimum>
            <Maximum>0.000261</Maximum>
            <Mean>0.000125019</Mean>
            <StandardDeviation>6.65097e-05</StandardDeviation>
        </Statistics>
        <Statistics Index="7">
            <Minimum>7e-06</Minimum>
            <Maximum>0.000294</Maximum>
            <Mean>0.00011676</Mean>
            <StandardDeviation>6.28438e-05</StandardDeviation>
        </Statistics>
        <Statistics Index="8">
            <Minimum>8e-06</Minimum>
            <Maximum>0.00019</Maximum>
            <Mean>0.000101314</Mean>
            <StandardDeviation>5.11077e-05</StandardDeviation>
        </Statistics>
        <Statistics Index="9">
            <Minimum>0.001886</Minimum>
            <Maximum>0.162032</Maximum>
            <Mean>0.0335029</Mean>
            <StandardDeviation>0.0348584</StandardDeviation>
        </Statistics>
        <Statistics Index="10">
            <Minimum>12.2553</Minimum>
            <Maximum>16.8498</Maximum>
            <Mean>14.6996</Mean>
            <StandardDeviation>0.733915</StandardDeviation>
        </Statistics>
        <Statistics Index="11">
            <Minimum>0.024101</Minimum>
            <Maximum>1.0365</Maximum>
            <Mean>0.234789</Mean>
            <StandardDeviation>0.17073</StandardDeviation>
        </Statistics>
        <Statistics Index="12">
            <Minimum>0.027247</Minimum>
            <Maximum>0.775099</Maximum>
            <Mean>0.219593</Mean>
            <StandardDeviation>0.131339</StandardDeviation>
        </Statistics>
        <Statistics Index="13">
            <Minimum>4e-06</Minimum>
            <Maximum>0.00017</Maximum>
            <Mean>7.05353e-05</Mean>
            <StandardDeviation>4.02943e-05</StandardDeviation>
        </Statistics>
        <Statistics Index="14">
            <Minimum>0.041827</Minimum>
            <Maximum>13.7892</Maximum>
            <Mean>2.61749</Mean>
            <StandardDeviation>2.96369</StandardDeviation>
        </Statistics>
        <Statistics Index="15">
            <Minimum>0.003724</Minimum>
            <Maximum>0.023591</Maximum>
            <Mean>0.0102904</Mean>
            <StandardDeviation>0.00479517</StandardDeviation>
        </Statistics>
        <Statistics Index="16">
            <Minimum>0.076791</Minimum>
            <Maximum>0.433445</Maximum>
            <Mean>0.184121</Mean>
            <StandardDeviation>0.0602481</StandardDeviation>
        </Statistics>
        <Statistics Index="17">
            <Minimum>0.065094</Minimum>
            <Maximum>0.264934</Maximum>
            <Mean>0.139753</Mean>
            <StandardDeviation>0.0346201</StandardDeviation>
        </Statistics>
        <Statistics Index="18">
            <Minimum>1.7e-05</Minimum>
            <Maximum>0.00045</Maximum>
            <Mean>0.000179143</Mean>
            <StandardDeviation>9.19612e-05</StandardDeviation>
        </Statistics>
        <Statistics Index="19">
            <Minimum>1.7e-05</Minimum>
            <Maximum>0.000491</Maximum>
            <Mean>0.000195301</Mean>
            <StandardDeviation>0.000104766</StandardDeviation>
        </Statistics>
        <Statistics Index="20">
            <Minimum>9e-06</Minimum>
            <Maximum>0.000356</Maximum>
            <Mean>0.000162264</Mean>
            <StandardDeviation>8.09912e-05</StandardDeviation>
        </Statistics>
        <ScalingMethod>MinimumMaximum</ScalingMethod>
    </ScalingLayer>
    <MultilayerPerceptron>
        <Architecture>20 30 3</Architecture>
        <LayersActivationFunction>HyperbolicTangent Linear</LayersActivationFunction>
        <Parameters>-1.79647 -0.689056 -3.74707 0.208618 -0.0184468 0.740486 1.00639 1.17903 1.15639 0.341757 1.88162 -0.081439 0.0351202 0.878593 0.084109 1.04292 -1.36803 1.89735 -1.04659 0.872415 -1.54345 0.401912 -0.350019 -0.0423369 0.810411 0.209254 0.343174 0.26959 1.51811 -0.103711 0.916161 -0.597077 2.14912 -1.4206 0.825397 1.13593 0.0204634 1.59218 -0.693697 -0.9272 -1.43103 -1.32329 -1.64434 0.127916 0.184041 1.00639 -0.403151 0.586182 -1.46171 0.341686 0.274892 3.52158 -0.675994 -0.936112 -0.735675 1.31048 -0.555567 0.181458 -0.708314 -0.8146 1.18397 -1.37866 0.0354859 -0.875778 0.805447 -0.72246 -0.655818 -1.27572 2.02198 2.47866 0.0173198 -1.67849 -0.197999 0.0193604 1.42374 0.590235 -0.736885 -0.314919 1.03018 -0.6539 0.711029 0.629552 0.895179 1.26477 1.23759 -1.8874 -0.547536 0.280386 -0.201936 -2.84497 -0.340783 -1.41482 -1.00409 0.782702 0.0792247 0.00865704 0.202847 1.56691 1.34931 0.420735 0.675331 0.431694 0.0161411 0.485412 -0.7806 -0.606601 0.797908 -0.28609 -0.655797 -1.4213 0.273478 -0.161143 -0.574194 -0.188342 1.97643 -0.438555 0.933011 0.0511295 0.330482 0.42155 0.516096 1.3398 1.31292 1.20894 0.619925 -0.537797 3.05901 0.275631 -0.193796 -1.00924 0.178699 -0.227585 -0.777172 -1.24169 -0.723308 0.00123538 0.0672243 1.30472 -1.12917 0.411617 -1.0928 -0.487393 -0.0426434 -0.390918 -1.49516 1.16023 -0.135126 -1.69671 2.37022 0.853908 -1.80546 -0.3293 0.154338 -0.274484 0.0236733 0.518172 -2.38921 -0.0973443 1.71709 1.11151 0.835821 -0.575593 -0.339082 0.79779 -0.270064 -0.1416 0.223804 -0.91872 2.0496 0.273209 1.85854 1.8668 -0.2396 0.000824174 -0.0660639 -0.452595 -0.316308 -0.566597 -0.862699 -2.33219 -0.232493 0.338565 -1.22271 0.225932 -0.389595 -0.133376 -2.48238 -0.786499 -0.411915 -1.14241 -1.18752 0.0081028 1.0659 0.740009 -0.396322 0.754821 -0.0358041 -1.06181 0.307995 -0.782614 0.668766 0.824493 -1.05306 0.388481 0.508162 0.135527 0.280864 0.610698 -0.932814 1.33748 0.495446 1.88182 -1.23484 -1.9286 -0.00579869 -0.67833 2.21409 0.452272 0.162093 0.0390231 0.819867 0.120746 0.700123 -0.462182 -0.487913 -0.139831 1.73963 0.0834949 0.826474 -0.932663 0.595378 0.801921 -1.04478 -1.58027 -0.446 -0.58786 -0.789704 -0.597327 0.56412 -1.29275 -0.439201 0.895605 -2.3854 1.33059 -1.70634 -0.512321 0.802007 -0.281385 -1.56446 -1.31649 -0.383073 1.677 -1.00345 0.454115 0.330352 -0.765501 -0.0112863 1.08479 -0.939697 -0.59267 0.913559 1.83165 -1.11574 0.764516 0.321696 0.0446509 0.477044 -0.544697 -0.193385 0.342379 0.447806 1.25198 -0.0231465 -0.601789 0.340171 -0.644343 -1.23894 0.751472 0.221408 0.845788 -0.837292 -0.266455 -1.37252 0.987628 0.858853 1.60279 -0.169284 -2.18453 0.776268 0.0452549 0.0409497 -0.0743135 -0.10132 0.95585 -0.537157 -0.431512 -0.281069 1.15025 -1.30124 -0.44313 -1.45287 -1.40113 -1.04248 0.0652709 -0.0842076 0.531683 -0.785149 -0.902851 1.03827 -0.988359 1.03643 0.259766 0.1423 -0.564624 0.635574 -1.36974 0.519815 0.138593 -0.45017 0.0814329 -0.0261608 -1.86106 0.530915 2.65812 -0.542102 0.119578 -1.17971 0.419079 0.704111 0.401583 -1.10832 0.295124 -0.528404 -0.739131 0.505252 0.858677 0.118551 0.142626 0.896667 0.0596635 0.181181 0.018944 -0.14401 -2.26641 -0.0573293 0.381478 0.512638 -0.88296 -0.171273 -1.8836 0.768399 -0.222488 -0.473687 -0.894693 0.287454 -0.301916 -0.679694 -0.021456 1.52902 -2.20581 -1.2062 1.38568 -0.575393 -2.35451 0.167061 -0.857679 0.00373382 -0.048012 1.13052 0.0337118 0.386318 -0.998164 0.33909 -0.54064 -1.05477 0.544692 -0.032332 -1.15122 0.00936418 0.486355 0.90103 -0.59221 -0.506893 0.427588 0.940672 1.31833 -0.260415 0.670834 -0.981657 0.348448 -0.60435 0.476641 0.316217 -0.66089 0.644269 -0.569246 -0.572897 -0.331193 1.53663 -2.84433 0.622426 0.404293 0.80467 0.702833 -0.635493 0.597952 0.77593 -1.09931 2.23664 -1.96072 -0.913273 -0.142701 -0.784618 2.01206 0.583346 0.819052 -0.503098 0.986885 0.374075 1.34006 -0.608878 -0.600446 -1.43745 -0.231373 1.12117 -0.645384 -1.86314 0.0532665 -1.86285 0.563978 -0.706384 1.46371 0.545427 0.556693 0.177409 -0.749147 0.265883 -0.00729006 -1.7014 -1.45911 -0.982744 -1.81393 0.462831 1.1599 -0.762765 0.478538 -1.54919 -1.48249 1.62468 -0.690067 0.797652 -0.54817 0.539849 1.32965 -0.684961 0.615816 -0.480218 -0.999929 -0.274008 1.55761 0.40327 0.13434 -2.54787 -0.18171 -0.129569 0.97056 -1.52738 0.341206 0.649226 -1.16643 0.210442 1.50503 1.71542 0.210183 0.609431 1.56741 1.01791 0.69697 0.109213 1.42465 -0.234536 0.032422 0.580874 -0.678801 0.917338 0.00107056 0.718924 1.58234 0.228882 -1.0211 0.408973 -0.506364 -1.36813 -0.400131 -0.0200324 1.47856 0.0591667 -0.876426 -1.74676 -0.203176 0.879011 -0.702628 -0.657684 -1.84695 -0.33361 0.257625 -0.611546 -1.21904 2.63127 -0.580032 1.01367 -0.00290438 -0.178115 -0.304082 -0.86801 -0.365135 1.25082 0.165545 0.404999 1.10097 0.716583 0.675472 0.42775 1.14009 0.470019 -3.18139 0.476214 2.30505 0.695181 -0.51704 -0.816768 1.21561 0.401897 0.657346 -0.101951 0.791584 -0.470602 -0.266329 -0.414684 -1.34715 0.197671 -1.83998 -0.334425 0.204424 1.1848 0.0437855 0.909309 0.171931 1.66247 -0.908078 -0.0129749 0.285183 -0.034096 2.49201 -0.869084 0.717778 -0.165081 0.606357 0.304214 2.01682 -0.513564 0.13801 1.15109 -0.356752 0.495495 -0.198652 0.725595 -1.62174 0.316406 -1.2098 0.00513931 0.432511 -0.950316 0.371162 1.25949 1.03381 -1.03303 0.239236 1.17773 2.39896 1.2725 -0.150981 0.132453 -0.247324 0.993578 0.481815 -0.215096 1.03192 -1.01285 -0.0611184 1.0687 0.293917 -1.96037 0.615579 -0.327258 -1.19677 0.443732 2.4733 -0.323408 2.01659 -0.203976 1.26944 1.14847 1.2866 -0.29924 -0.612661 0.997136 0.437184 0.60336 -1.04829 -1.14609 -0.253604 1.63226 -0.428334 2.48751 1.74941 1.00553 0.424693 -0.823149 0.546635 -0.136491 1.55144 0.0233641 0.954819 -1.77301 -0.894032 -0.10848 0.622309 0.165049 1.32506 0.678436 -0.0927265 0.040616 -0.063698 -0.0101618 -0.0224248 0.00580222 -0.246186 -0.227222 -0.252279 -0.043314 -0.372797 -0.0394624 0.391451 -0.0216182 -0.577431 -0.578787 -0.12426 0.0546738 -0.14055 0.928188 -0.405236 -0.352133 0.613798 -0.0294935 0.0758169 0.107689 0.0528885 -0.149068 -0.299246 0.147918 -0.217948 0.17397 -0.0153755 0.0236372 0.0796168 0.0712529 -0.0806212 -0.0290956 0.292882 0.741824 -0.155995 0.515647 -0.159629 0.0306582 0.0505257 -0.0711843 0.375178 0.22588 0.0205581 0.146962 1.13106 -0.0294811 0.405636 -0.734328 -0.000935225 -0.0889529 -0.0732296 -0.12291 -0.0462537 -0.20086 -0.0978763 -1.84486 0.0854982 0.00361731 0.0251887 -0.0542855 0.0215688 -0.490075 0.610295 -0.115165 -0.359982 -0.128296 -0.0221904 0.0447706 1.24092 0.0179079 0.65032 0.192911 0.0577896 -0.0260471 0.0395712 0.0973056 0.496919 -0.213734 -1.85472 0.0107562 0.062672 0.0602425 0.0644925 0.0465272 -0.365359 -0.0455771</Parameters>
    </MultilayerPerceptron>
    <ProbabilisticLayer>
        <ProbabilisticNeuronsNumber>3</ProbabilisticNeuronsNumber>
        <ProbabilisticMethod>Probability</ProbabilisticMethod>
        <DecisionThreshold>0.5</DecisionThreshold>
    </ProbabilisticLayer>
    <Outputs>
        <OutputsNumber>3</OutputsNumber>
        <Item Index="1">
            <Name>output_1</Name>
            <Units></Units>
            <Description></Description>
        </Item>
        <Item Index="2">
            <Name>output_2</Name>
            <Units></Units>
            <Description></Description>
        </Item>
        <Item Index="3">
            <Name>output_3</Name>
            <Units></Units>
            <Description></Description>
        </Item>
    </Outputs>
</NeuralNetwork>
